[
    {
        "input": 4,
        "activation": "sigmoid",
        "output": 3,
        "iterations": 100000,
        "weights": [
            [
                0.27242082335734297,
                0.45583606671144705,
                -0.2526240373389902
            ],
            [
                1.0945620056054988,
                -2.4425664521959862,
                -1.089429575594335
            ],
            [
                -0.9342218243430179,
                5.120763540549961,
                4.066006925674933
            ],
            [
                0.3871607194527362,
                2.4771095738052797,
                2.3622022130783074
            ]
        ],
        "bias": [
            1.1780829823484182,
            -1.4495183743701747,
            -1.1650035081591656
        ],
        "index": -1
    },
    {
        "input": 3,
        "activation": "sigmoid",
        "output": 10,
        "iterations": 100000,
        "weights": [
            [
                0.3299519384885623,
                1.2034119142798965,
                -1.1239538477708033,
                0.46234338365464167,
                1.1091159817898972,
                1.1634666073319933,
                0.8254089629505872,
                -1.3827680378005216,
                -1.3543502838560788,
                1.275630878278567
            ],
            [
                0.4851414846930487,
                -0.09237576996880648,
                3.5780571270545254,
                0.6231038609873679,
                -0.4346207946390492,
                -0.3064287625777198,
                1.0597546690846984,
                2.6779010131254712,
                4.1546712445479175,
                0.9857010617780118
            ],
            [
                1.2404567457495792,
                0.09221382767081282,
                1.8946047706949791,
                0.3075933991145382,
                -0.12951625958878107,
                0.003406200098000612,
                0.7742751959428205,
                2.5991105880750673,
                2.948988810145975,
                0.20097129781144554
            ]
        ],
        "bias": [
            0.14352138025813382,
            1.4091810711463468,
            -1.6154006301517434,
            1.0022044300850566,
            0.9417026385653069,
            1.3084710917011915,
            1.243379221973287,
            -1.2969212452594074,
            -2.180494615190559,
            1.3870618177173808
        ],
        "index": 0
    },
    {
        "input": 10,
        "activation": "sigmoid",
        "output": 1,
        "iterations": 100000,
        "weights": [
            [
                0.37255637616069304
            ],
            [
                -1.528407633984457
            ],
            [
                4.350806441854023
            ],
            [
                -0.3383190184337628
            ],
            [
                -1.4542330663320286
            ],
            [
                -1.6050950221153266
            ],
            [
                -0.7205578419363882
            ],
            [
                4.021185741690885
            ],
            [
                5.778919557520238
            ],
            [
                -1.0709165750587553
            ]
        ],
        "bias": [
            -1.700960140315694
        ],
        "index": 1
    }
]